{"b2": {"shape": [1, 1], "pesos": [[-6.861961997152413]]}, "W2": {"shape": [4, 1], "pesos": [[-19.32529931500002], [-2.9145669990422967], [29.664570790831306], [9.905675251799732]]}, "network": "rede_expert", "b1": {"shape": [1, 4], "pesos": [[1.5006637393808075, 1.451723571519051, 0.2018432213123592, 2.665631038294239]]}, "W1": {"shape": [15, 4], "pesos": [[-0.16026002783085017, -0.9188028325326272, 0.05575075206662846, 0.0011636518551179907], [-0.01707710132644612, -0.42112128606048205, 0.14808897182936898, -0.44802075728301527], [-0.6269177976172846, -0.258739084038916, -0.04420197748453442, -0.11519210500925436], [-0.05466500671789797, -1.4402218618882543, -0.03765935294089151, 0.08494133799905842], [0.08702363260259564, -1.497020871882234, -0.4398015437260368, -0.1521319338779584], [-0.5740276151999464, 0.10885908437046625, -0.3345712308358951, 0.16051322662499273], [-0.15402268256619794, -0.9931862305563216, -0.0870069364521661, 0.3287252293756071], [0.21062839085167007, -1.9088469839267646, 0.23475920262512046, 0.22329949084207584], [-0.47364321269637144, 0.8184586868445561, 0.013244253657972245, -0.3696384054938259], [-0.02217427119675906, 2.289607257393087, 0.26816048595562436, -0.09579489036875727], [-0.24535829297682005, 0.010116606058420049, -0.18114913943734937, 0.2702233495767963], [0.15192380621432017, 0.7052648130230418, 0.27607981766752115, 0.8746933534187535], [-1.3180250017316673, 1.0242660318062586, -0.7036667591696245, -0.35500173879035596], [-2.207395068307006, -0.42531614430040166, 0.009512581040980824, -2.9375222805809837], [2.2262823253069715, 0.06983086918817737, 0.4329091971461928, -2.615731881317902]]}}