{"b2": {"shape": [1, 1], "pesos": [[-9.082409035902138]]}, "W2": {"shape": [3, 1], "pesos": [[31.73645635804303], [-5824295.265440107], [-7.759808313316926]]}, "network": "rede_expert", "b1": {"shape": [1, 3], "pesos": [[-0.8689061593901793, -7.176854030685016, -0.7373139847103736]]}, "W1": {"shape": [15, 3], "pesos": [[-0.5763407610091466, -3.0404860993622944, -0.015809134462896977], [-0.5058363428346548, -4.077735763788154, -0.06121445196673569], [-0.22303116208302567, -2.9503683838826134, -0.45634049559255396], [0.6727496618151535, -2.240796333409753, -0.453033083705947], [-1.0350872461715515, -2.558548395132547, 1.5803155202089878], [-0.8411527443046154, -3.012883236730793, 0.8463246877339013], [0.23622421625349843, 0.30010174168565273, -0.5180239608331175], [0.5314551084482037, -1.1851096775235568, -1.1013659193322798], [-0.6596310866563462, -1.9510248219586188, 0.21297099554984655], [0.7993458739889419, -1.7272247919298644, -0.7098048167933046], [0.39000820511204326, -0.020848475670728693, -0.48515087615239727], [1.045274780873685, -3.0535983915922187, -1.3517572836794618], [-0.47436614767311436, -2.549991097299361, 0.9542924889464528], [-4.270835603266742, -3.4795883233369658, 1.2792669929393394], [2.566537015495913, -4.506095395734439, 1.5403910820576965]]}}