{"b2": {"shape": [1, 1], "pesos": [[451.8942121614451]]}, "W2": {"shape": [4, 1], "pesos": [[-551.8875662533209], [75.94423374731231], [-145.29108280002936], [-3.8233173298132788]]}, "network": "rede_expert", "b1": {"shape": [1, 4], "pesos": [[0.9475817901961131, -0.08374473001687145, 0.4054863805842791, 0.16279720056561167]]}, "W1": {"shape": [15, 4], "pesos": [[0.07998849439542495, 0.19878477580132586, -0.13713539668534, 0.4843754834088269], [-0.056105410183486346, -0.09299906939485326, 0.08387822378683538, 0.10976710478979405], [0.1333161435607744, 0.2900710113262288, -0.22290200687561676, 0.5525552835966895], [0.038392362922608725, 0.1315939359357724, -0.031722078072667484, -0.18257053699112313], [0.040845391582474896, 0.15389808416712772, -0.010960164107591307, -0.21481606330673225], [0.16557966280856012, 0.35706633006244376, -0.24542683525304437, -0.029003309174694028], [0.2067746194593633, 0.439397500731217, -0.3099878722996653, -0.2619726882332085], [-0.009499020698102077, -0.000528799432835101, 0.02584037179978387, -0.37336944699251345], [0.10007587856853371, 0.2520712438812825, -0.1380716567944058, 0.11356037819891868], [0.06654720934341628, 0.18765731106717512, -0.0822064233220213, -0.13947699045778275], [0.2634750142028403, 0.5766632403501719, -0.39685402336397063, 0.17348859271715908], [0.15903576561030414, 0.32667240335463793, -0.2674412049422181, 0.05950987076124034], [0.09863064691082146, 0.25062539515767657, -0.11379030506960011, -0.09699914031172542], [0.10430533185622416, 0.3356499155994875, -0.1272572201752804, -0.058008808580023136], [0.009397757458208452, -1.7044110909088335, -0.9601894391535534, -0.22700569417376698]]}}